/*!
 * The following copyright notice may not be removed under any circumstances.
 * 
 * Copyright:
 * ProFont Distribution 2.2 Ñ Generated by Fontographer 4.1.5
 */
Raphael.registerFont({"w":600,"face":{"font-family":"profont","font-weight":400,"font-stretch":"normal","units-per-em":"900","panose-1":"2 0 4 9 0 0 0 0 0 0","ascent":"720","descent":"-180","bbox":"-0.829704 -910 600 199.082","underline-thickness":"50","underline-position":"-75","unicode-range":"U+0020-U+00FF"},"glyphs":{" ":{},"!":{"d":"300,-200r-100,0r0,-500r100,0r0,500xm250,-100v27,0,50,23,50,50v0,27,-23,50,-50,50v-27,0,-50,-23,-50,-50v0,-27,23,-50,50,-50"},"\"":{"d":"400,-500r-100,0r0,-300r100,0r0,300xm200,-500r-100,0r0,-300r100,0r0,300"},"#":{"d":"500,-300r-100,0r0,100r-100,0r0,-100r-100,0r0,100r-100,0r0,-100r-100,0r0,-100r100,0r0,-100r-100,0r0,-100r100,0r0,-100r100,0r0,100r100,0r0,-100r100,0r0,100r100,0r0,100r-100,0r0,100r100,0r0,100xm300,-400r0,-100r-100,0r0,100r100,0"},"$":{"d":"300,-400v106,-3,200,94,200,200v0,107,-93,203,-200,200r0,99r-100,0r0,-99v-108,3,-203,-92,-200,-200r100,0v-2,53,47,102,100,100r0,-200v-108,3,-200,-92,-200,-200v0,-108,92,-203,200,-200r0,-100r100,0r0,100v107,-3,203,93,200,200r-100,0v2,-53,-47,-102,-100,-100r0,200xm200,-600v-84,-4,-134,111,-70,170v20,19,43,30,70,30r0,-200xm300,-100v84,4,134,-111,70,-170v-20,-19,-43,-30,-70,-30r0,200"},"%":{"d":"370,-399v76,14,130,105,130,199v0,98,-61,200,-150,200v-98,0,-164,-117,-148,-231r-102,102r0,129r-100,0r0,-171r131,-131v-80,-16,-131,-99,-131,-198v0,-98,61,-200,150,-200r350,0r0,171xm400,-571r0,-29r-121,0v18,40,24,82,20,130xm150,-400v67,-11,68,-189,0,-200v-67,11,-68,189,0,200xm350,-100v67,-11,68,-189,0,-200v-67,11,-68,189,0,200"},"&":{"d":"262,-700v86,-3,164,89,130,177r-172,173r130,131r103,-103r69,69r-102,103r96,97r-69,68r-97,-96r-58,59v-166,86,-360,-91,-270,-270r58,-57r-58,-59v-71,-136,38,-297,178,-292r62,0xm200,-600v-65,-3,-121,69,-93,137r44,44r148,-148v11,-49,-58,-31,-99,-33xm107,-237v-31,79,46,163,130,130r44,-43r-131,-130"},"'":{"d":"300,-500r-100,0r0,-300r100,0r0,300"},"(":{"d":"419,49r-69,69r-250,-249r0,-438r250,-250r69,69r-219,219r0,362"},")":{"d":"400,-131r-250,249r-69,-69r219,-218r0,-362r-219,-219r69,-69r250,250r0,438"},"*":{"d":"493,-373r-49,88r-144,-79r0,164r-100,0r0,-164r-142,82r-50,-86r142,-82r-143,-77r49,-88r144,80r0,-165r100,0r0,163r141,-81r50,86r-141,82"},"+":{"d":"500,-300r-200,0r0,200r-100,0r0,-200r-200,0r0,-100r200,0r0,-200r100,0r0,200r200,0r0,100"},",":{"d":"250,-225v53,0,100,47,100,100r0,168r-156,156r-69,-69r125,-125r0,-30v-53,2,-100,-47,-100,-100v0,-53,47,-100,100,-100"},"-":{"d":"400,-300r-300,0r0,-100r300,0r0,100"},"\u2010":{"d":"400,-300r-300,0r0,-100r300,0r0,100"},".":{"d":"250,-225v54,0,96,46,96,100v0,54,-42,100,-96,100v-53,0,-100,-47,-100,-100v0,-53,47,-100,100,-100"},"\/":{"d":"571,-754r-482,944r-89,-45r482,-945"},"0":{"d":"300,-700v106,-3,200,94,200,200r0,300v3,106,-94,203,-200,200r-100,0v-106,3,-200,-94,-200,-200r0,-300v-3,-106,94,-203,200,-200r100,0xm200,-600v-53,-2,-100,47,-100,100r0,231r285,-285v-31,-58,-104,-45,-185,-46xm300,-100v53,2,100,-47,100,-100r0,-229r-283,283v32,59,103,45,183,46"},"1":{"d":"50,-600v87,11,148,-28,150,-100r100,0r0,600r200,0r0,100r-500,0r0,-100r200,0r0,-400r-150,0r0,-100"},"2":{"d":"300,-700v139,-4,250,155,178,292r-309,308r331,0r0,100r-500,0r0,-69r393,-394v27,-67,-28,-137,-93,-137r-100,0v-53,-2,-102,47,-100,100r-100,0v-3,-106,94,-203,200,-200r100,0"},"3":{"d":"500,-200v0,108,-92,200,-200,200v-107,0,-184,4,-242,-58v-38,-40,-58,-87,-58,-142r100,0v-2,53,47,100,100,100r100,0v53,2,100,-47,100,-100v0,-53,-47,-100,-100,-100r-100,0r0,-100r100,0v53,2,100,-47,100,-100v0,-53,-47,-100,-100,-100r-100,0v-53,-2,-102,47,-100,100r-100,0v-3,-108,92,-203,200,-200r100,0v108,-3,200,92,200,200v0,60,-28,110,-85,150v57,40,85,90,85,150"},"4":{"d":"500,0r-300,0r0,-100r100,0r0,-100r-300,0r0,-169r331,-331r69,0r0,400r100,0r0,100r-100,0r0,100r100,0r0,100xm300,-300r0,-231r-200,200r0,31r200,0"},"5":{"d":"300,-500v106,-3,203,94,200,200r0,100v3,106,-94,200,-200,200v-107,0,-182,4,-241,-58v-38,-40,-59,-87,-59,-142r100,0v-2,53,47,100,100,100r100,0v53,2,100,-47,100,-100r0,-100v2,-53,-47,-100,-100,-100r-300,0r0,-300r500,0r0,100r-400,0r0,100r200,0"},"6":{"d":"300,-500v106,-3,203,94,200,200r0,100v3,106,-94,203,-200,200r-100,0v-106,3,-200,-94,-200,-200r0,-300v-3,-106,94,-200,200,-200r200,0r0,100r-200,0v-53,-2,-102,47,-100,100r200,0xm300,-100v53,2,100,-47,100,-100r0,-100v2,-53,-47,-100,-100,-100r-200,0r0,200v-2,53,47,100,100,100r100,0"},"7":{"d":"500,-431r-200,200r0,231r-100,0r0,-269r200,-200r0,-131r-400,0r0,-100r500,0r0,269"},"8":{"d":"0,-500v0,-108,92,-203,200,-200r100,0v108,-3,200,92,200,200v0,60,-28,110,-85,150v57,40,85,90,85,150v0,108,-92,203,-200,200r-100,0v-108,3,-200,-92,-200,-200v0,-60,28,-110,85,-150v-57,-40,-85,-90,-85,-150xm400,-500v0,-53,-47,-100,-100,-100r-100,0v-54,-2,-100,46,-100,100v0,53,47,100,100,100r100,0v53,2,100,-47,100,-100xm100,-200v0,53,47,100,100,100r100,0v54,2,100,-46,100,-100v0,-53,-47,-100,-100,-100r-100,0v-53,-2,-100,47,-100,100"},"9":{"d":"300,-700v106,-3,200,94,200,200r0,300v3,106,-94,200,-200,200r-200,0r0,-100r200,0v53,2,102,-47,100,-100r-200,0v-106,3,-203,-94,-200,-200r0,-100v-3,-106,94,-203,200,-200r100,0xm100,-400v-2,53,47,100,100,100r200,0r0,-200v2,-53,-47,-100,-100,-100r-100,0v-53,-2,-100,47,-100,100r0,100"},":":{"d":"250,-525v53,0,100,47,100,100v0,53,-47,100,-100,100v-53,0,-100,-47,-100,-100v0,-53,47,-100,100,-100xm250,-225v53,0,100,47,100,100v0,53,-47,100,-100,100v-53,0,-100,-47,-100,-100v0,-53,47,-100,100,-100"},";":{"d":"250,-525v53,0,100,47,100,100v0,53,-47,100,-100,100v-53,0,-100,-47,-100,-100v0,-53,47,-100,100,-100xm250,-225v53,0,100,47,100,100r0,168r-156,156r-69,-69r125,-125r0,-30v-53,2,-100,-47,-100,-100v0,-53,47,-100,100,-100"},"<":{"d":"525,-44r-69,68r-377,-374r371,-369r69,69r-298,300"},"=":{"d":"500,-400r-500,0r0,-100r500,0r0,100xm500,-200r-500,0r0,-100r500,0r0,100"},">":{"d":"521,-350r-371,368r-69,-68r298,-300r-304,-306r69,-69"},"?":{"d":"300,-700v139,-4,250,155,178,292r-209,208r-69,0r0,-69r193,-194v27,-67,-28,-137,-93,-137r-100,0v-53,-2,-102,47,-100,100r-100,0v-3,-106,94,-203,200,-200r100,0xm250,-100v27,0,50,23,50,50v0,27,-23,50,-50,50v-27,0,-50,-23,-50,-50v0,-27,23,-50,50,-50"},"@":{"d":"100,-200v-2,53,47,100,100,100r300,0r0,100r-300,0v-106,3,-200,-94,-200,-200r0,-300v-3,-106,94,-203,200,-200r100,0v106,-3,200,94,200,200r0,200v2,54,-46,100,-100,100r-100,0v-52,2,-100,-49,-100,-100r0,-100v-2,-53,47,-100,100,-100r100,0v2,-53,-47,-100,-100,-100r-100,0v-53,-2,-100,47,-100,100r0,300xm375,-300v36,2,23,-44,25,-75v2,-36,-44,-23,-75,-25v-36,-2,-23,44,-25,75v-2,36,44,23,75,25"},"A":{"d":"100,-200r0,200r-100,0r0,-325r188,-375r125,0r187,375r0,325r-100,0r0,-200r-300,0xm250,-600r-150,300r300,0"},"B":{"d":"300,-700v108,-3,200,92,200,200v0,60,-28,110,-85,150v57,40,85,90,85,150v0,108,-92,200,-200,200r-300,0r0,-700r300,0xm400,-500v0,-53,-47,-100,-100,-100r-200,0r0,200r200,0v53,2,100,-47,100,-100xm400,-200v0,-53,-47,-100,-100,-100r-200,0r0,200r200,0v53,2,100,-47,100,-100"},"C":{"d":"300,-100v53,2,102,-47,100,-100r100,0v3,106,-94,203,-200,200r-100,0v-106,3,-200,-94,-200,-200r0,-300v-3,-106,94,-200,200,-200v107,0,182,-4,241,59v38,40,59,86,59,141r-100,0v2,-53,-47,-100,-100,-100r-100,0v-53,-2,-100,47,-100,100r0,300v-2,53,47,100,100,100r100,0"},"D":{"d":"300,-700v106,-3,200,94,200,200r0,300v3,106,-94,200,-200,200r-300,0r0,-700r300,0xm300,-100v53,2,100,-47,100,-100r0,-300v2,-53,-47,-100,-100,-100r-200,0r0,500r200,0"},"E":{"d":"500,0r-500,0r0,-700r500,0r0,100r-400,0r0,200r300,0r0,100r-300,0r0,200r400,0r0,100"},"F":{"d":"500,-600r-400,0r0,200r300,0r0,100r-300,0r0,300r-100,0r0,-700r500,0r0,100"},"G":{"d":"300,-100v53,2,100,-47,100,-100r0,-100r-100,0r0,-100r200,0r0,200v3,106,-94,203,-200,200r-100,0v-106,3,-200,-94,-200,-200r0,-300v-3,-106,94,-200,200,-200v107,0,182,-4,241,59v38,40,59,86,59,141r-100,0v2,-53,-47,-100,-100,-100r-100,0v-53,-2,-100,47,-100,100r0,300v-2,53,47,100,100,100r100,0"},"H":{"d":"500,0r-100,0r0,-300r-300,0r0,300r-100,0r0,-700r100,0r0,300r300,0r0,-300r100,0r0,700"},"I":{"d":"500,0r-500,0r0,-100r200,0r0,-500r-200,0r0,-100r500,0r0,100r-200,0r0,500r200,0r0,100"},"J":{"d":"300,-100v53,2,100,-47,100,-100r0,-500r100,0r0,500v3,107,-93,203,-200,200r-100,0v-106,3,-203,-94,-200,-200r0,-100r100,0r0,100v-2,53,47,100,100,100r100,0"},"K":{"d":"500,0r-100,0r-300,-300r0,300r-100,0r0,-700r100,0r0,300r300,-300r100,0r0,37r-313,313r313,312r0,38"},"L":{"d":"500,0r-500,0r0,-700r100,0r0,600r400,0r0,100"},"M":{"d":"500,0r-100,0r0,-525r-100,100r0,125r-100,0r0,-125r-100,-100r0,525r-100,0r0,-700r75,0r175,175r175,-175r75,0r0,700"},"N":{"d":"500,0r-100,0r0,-231r-300,-300r0,531r-100,0r0,-700r69,0r331,331r0,-331r100,0r0,700"},"O":{"d":"300,-700v106,-3,200,94,200,200r0,300v3,106,-94,203,-200,200r-100,0v-106,3,-200,-94,-200,-200r0,-300v-3,-106,94,-203,200,-200r100,0xm300,-100v53,2,100,-47,100,-100r0,-300v2,-53,-47,-100,-100,-100r-100,0v-53,-2,-100,47,-100,100r0,300v-2,53,47,100,100,100r100,0"},"P":{"d":"300,-700v108,-3,200,92,200,200v0,106,-94,200,-200,200r-200,0r0,300r-100,0r0,-700r300,0xm300,-400v53,2,100,-47,100,-100v0,-53,-47,-100,-100,-100r-200,0r0,200r200,0"},"Q":{"d":"300,-700v106,-3,200,94,200,200r0,300v0,64,-25,116,-74,155r85,83r-71,72r-112,-112v-43,4,-83,1,-128,2v-106,3,-200,-94,-200,-200r0,-300v-3,-106,94,-203,200,-200r100,0xm100,-200v1,64,55,112,129,99r-39,-39r71,-70r94,94v30,-20,45,-48,45,-84r0,-300v2,-53,-47,-100,-100,-100r-100,0v-53,-2,-100,47,-100,100r0,300"},"R":{"d":"300,-700v108,-3,200,92,200,200v0,60,-28,110,-85,150v57,40,85,90,85,150r0,200r-100,0r0,-200v2,-53,-47,-100,-100,-100r-200,0r0,300r-100,0r0,-700r300,0xm400,-500v0,-53,-47,-100,-100,-100r-200,0r0,200r200,0v53,2,100,-47,100,-100"},"S":{"d":"300,-400v106,-3,200,94,200,200v0,106,-94,200,-200,200v-107,0,-182,4,-241,-58v-38,-40,-59,-87,-59,-142r100,0v-2,53,47,100,100,100r100,0v53,2,100,-47,100,-100v0,-53,-47,-100,-100,-100r-100,0v-106,3,-200,-94,-200,-200v0,-106,94,-200,200,-200v107,0,182,-4,241,59v38,40,59,86,59,141r-100,0v2,-53,-47,-100,-100,-100r-100,0v-53,-2,-100,47,-100,100v0,53,47,100,100,100r100,0"},"T":{"d":"500,-600r-200,0r0,600r-100,0r0,-600r-200,0r0,-100r500,0r0,100"},"U":{"d":"300,-100v53,2,100,-47,100,-100r0,-500r100,0r0,500v3,107,-93,203,-200,200r-100,0v-107,3,-200,-93,-200,-200r0,-500r100,0r0,500v-2,53,47,100,100,100r100,0"},"V":{"d":"500,-500r-250,500r-250,-500r0,-200r100,0r0,177r150,298r150,-300r0,-175r100,0r0,200"},"W":{"d":"500,0r-75,0r-175,-175r-175,175r-75,0r0,-700r100,0r0,525r100,-100r0,-125r100,0r0,125r100,100r0,-525r100,0r0,700"},"X":{"d":"500,0r-100,0r0,-131r-150,-150r-150,150r0,131r-100,0r0,-169r181,-181r-181,-181r0,-169r100,0r0,131r150,150r150,-150r0,-131r100,0r0,169r-181,181r181,181r0,169"},"Y":{"d":"500,-431r-200,200r0,231r-100,0r0,-231r-200,-200r0,-269r100,0r0,231r150,150r150,-150r0,-231r100,0r0,269"},"Z":{"d":"500,0r-500,0r0,-179r400,-399r0,-22r-400,0r0,-100r500,0r0,162r-400,400r0,38r400,0r0,100"},"[":{"d":"400,99r-200,0r0,-899r200,0r0,100r-100,0r0,700r100,0r0,99"},"\\":{"d":"600,145r-82,45r-483,-945r89,-46"},"]":{"d":"300,99r-200,0r0,-99r100,0r0,-700r-100,0r0,-100r200,0r0,899"},"^":{"d":"532,-455r-70,71r-195,-195r-194,194r-71,-71r265,-265"},"_":{"d":"600,199r-600,0r0,-100r600,0r0,100"},"`":{"d":"312,-637r-68,68r-163,-162r69,-69"},"a":{"d":"0,-300v-3,-108,92,-200,200,-200r300,0r0,500r-100,0r0,-138v-47,49,-134,138,-200,138v-108,0,-203,-92,-200,-200r0,-100xm100,-200v-2,53,47,102,100,100v84,-4,145,-103,200,-150r0,-150r-200,0v-53,-2,-100,47,-100,100r0,100"},"b":{"d":"300,-500v106,-3,203,94,200,200r0,100v3,106,-94,200,-200,200r-300,0r0,-700r100,0r0,200r200,0xm300,-100v53,2,100,-47,100,-100r0,-100v2,-53,-47,-100,-100,-100r-200,0r0,300r200,0"},"c":{"d":"100,-200v-2,53,47,100,100,100r300,0r0,100r-300,0v-106,3,-203,-94,-200,-200r0,-100v-3,-106,94,-200,200,-200v107,0,182,-4,241,59v38,40,59,86,59,141r-100,0v2,-53,-47,-100,-100,-100r-100,0v-53,-2,-100,47,-100,100r0,100"},"d":{"d":"0,-300v-3,-106,94,-200,200,-200r200,0r0,-200r100,0r0,700r-300,0v-106,3,-203,-94,-200,-200r0,-100xm100,-200v-2,53,47,100,100,100r200,0r0,-300r-200,0v-53,-2,-100,47,-100,100r0,100"},"e":{"d":"100,-200v-2,53,47,100,100,100r300,0r0,100r-300,0v-106,3,-203,-94,-200,-200r0,-100v-3,-106,94,-203,200,-200r100,0v106,-3,203,94,200,200r0,100r-400,0xm400,-300v2,-53,-47,-102,-100,-100v-69,3,-134,-11,-170,30v-18,21,-30,43,-30,70r300,0"},"f":{"d":"200,-500v-3,-106,94,-203,200,-200r100,0r0,100v-69,3,-134,-11,-170,30v-18,21,-30,43,-30,70r100,0r0,100r-100,0r0,400r-100,0r0,-400r-100,0r0,-100r100,0"},"g":{"d":"0,-300v-3,-106,94,-200,200,-200r300,0r0,500v3,106,-94,199,-200,199r-200,0r0,-100r200,0v53,2,102,-47,100,-99r-200,0v-106,3,-203,-94,-200,-200r0,-100xm100,-200v-2,53,47,100,100,100r200,0r0,-300r-200,0v-53,-2,-100,47,-100,100r0,100"},"h":{"d":"300,-500v106,-3,200,94,200,200r0,300r-100,0r0,-300v2,-53,-47,-100,-100,-100r-200,0r0,400r-100,0r0,-700r100,0r0,200r200,0"},"i":{"d":"250,-700v27,0,50,23,50,50v0,27,-23,50,-50,50v-27,0,-50,-23,-50,-50v0,-27,23,-50,50,-50xm400,0r-300,0r0,-100r100,0r0,-300r-100,0r0,-100r200,0r0,400r100,0r0,100"},"j":{"d":"250,-700v27,0,50,23,50,50v0,27,-23,50,-50,50v-27,0,-50,-23,-50,-50v0,-27,23,-50,50,-50xm100,99v53,2,100,-47,100,-99r0,-400r-100,0r0,-100r200,0r0,500v3,106,-94,202,-200,199r-100,0r0,-100r100,0"},"k":{"d":"500,0r-69,0r-231,-231r-100,100r0,131r-100,0r0,-700r100,0r0,431r231,-231r138,0r-200,200r231,231r0,69"},"l":{"d":"400,0r-300,0r0,-100r100,0r0,-500r-100,0r0,-100r200,0r0,600r100,0r0,100"},"m":{"d":"300,-500v106,-3,200,94,200,200r0,300r-100,0r0,-300v2,-53,-47,-102,-100,-100r0,400r-100,0r0,-400r-100,0r0,400r-100,0r0,-500r300,0"},"n":{"d":"400,-300v2,-53,-47,-102,-100,-100v-84,4,-145,103,-200,150r0,250r-100,0r0,-500r100,0r0,137v48,-48,135,-137,200,-137v108,0,200,92,200,200r0,300r-100,0r0,-300"},"o":{"d":"300,-500v106,-3,203,94,200,200r0,100v3,106,-94,203,-200,200r-100,0v-106,3,-203,-94,-200,-200r0,-100v-3,-106,94,-203,200,-200r100,0xm300,-100v53,2,100,-47,100,-100r0,-100v2,-53,-47,-100,-100,-100r-100,0v-53,-2,-100,47,-100,100r0,100v-2,53,47,100,100,100r100,0"},"p":{"d":"300,-500v106,-3,203,94,200,200r0,100v3,106,-94,200,-200,200r-200,0r0,199r-100,0r0,-699r300,0xm300,-100v53,2,100,-47,100,-100r0,-100v2,-53,-47,-100,-100,-100r-200,0r0,300r200,0"},"q":{"d":"0,-300v-3,-106,94,-200,200,-200r300,0r0,699r-100,0r0,-199r-200,0v-106,3,-203,-94,-200,-200r0,-100xm100,-200v-2,53,47,100,100,100r200,0r0,-300r-200,0v-53,-2,-100,47,-100,100r0,100"},"r":{"d":"400,-300v2,-53,-47,-102,-100,-100v-84,4,-145,103,-200,150r0,250r-100,0r0,-500r100,0r0,137v48,-48,135,-137,200,-137v108,0,203,92,200,200r-100,0"},"s":{"d":"13,-350v0,-93,119,-150,225,-150r262,0r0,100r-262,0v-52,-1,-119,13,-125,50v9,42,89,53,150,50v106,-3,225,57,225,150v0,92,-120,150,-225,150r-263,0r0,-100r263,0v51,1,119,-14,125,-50v-9,-42,-90,-52,-150,-50v-107,4,-225,-57,-225,-150"},"t":{"d":"300,-200v-2,53,47,100,100,100r100,0r0,100r-100,0v-106,3,-200,-94,-200,-200r0,-200r-100,0r0,-100r100,0r0,-200r100,0r0,200r100,0r0,100r-100,0r0,200"},"u":{"d":"100,-200v-2,53,47,102,100,100v84,-4,145,-103,200,-150r0,-250r100,0r0,500r-100,0r0,-138v-47,49,-134,138,-200,138v-108,0,-200,-92,-200,-200r0,-300r100,0r0,300"},"v":{"d":"500,-400r-200,400r-100,0r-200,-400r0,-100r100,0r0,75r150,300r150,-300r0,-75r100,0r0,100"},"w":{"d":"500,-225v3,106,-58,223,-150,225v-35,0,-67,-33,-94,-100r-12,0v-27,67,-59,100,-94,100v-92,-1,-150,-120,-150,-225r0,-275r100,0r0,275v-1,52,13,119,50,126v36,-6,51,-75,50,-126r0,-275r100,0r0,275v-1,52,13,119,50,125v37,-6,51,-74,50,-125r0,-275r100,0r0,275"},"x":{"d":"500,0r-100,0r0,-31r-150,-150r-150,150r0,31r-100,0r0,-69r181,-181r-181,-181r0,-69r100,0r0,31r150,150r150,-150r0,-31r100,0r0,69r-181,181r181,181r0,69"},"y":{"d":"100,-200v-2,53,47,100,100,100r200,0r0,-400r100,0r0,500v3,106,-94,199,-200,199r-200,0r0,-100r200,0v53,2,102,-47,100,-99r-200,0v-106,3,-200,-94,-200,-200r0,-300r100,0r0,300"},"z":{"d":"500,0r-500,0r0,-69r331,-331r-331,0r0,-100r500,0r0,69r-331,331r331,0r0,100"},"{":{"d":"300,0v-1,52,47,101,100,99r0,100v-103,3,-200,-77,-200,-175r0,-224v2,-53,-47,-102,-100,-100r0,-100v53,2,100,-47,100,-100v0,-137,-31,-280,58,-348v41,-32,87,-52,142,-52r0,100v-53,-2,-100,47,-100,100r0,250v0,35,-33,67,-100,94r0,12v67,27,100,59,100,94r0,250"},"|":{"d":"300,99r-100,0r0,-899r100,0r0,899"},"}":{"d":"300,-500v-2,53,47,102,100,100r0,100v-53,-2,-100,47,-100,100v0,137,30,280,-58,348v-41,32,-87,51,-142,51r0,-100v53,2,100,-47,100,-99r0,-250v0,-35,33,-67,100,-94r0,-12v-67,-27,-100,-59,-100,-94r0,-250v2,-53,-47,-102,-100,-100r0,-100v103,-3,200,77,200,175r0,225"},"~":{"d":"350,-400v47,0,55,-48,50,-100r100,0r0,50v2,80,-70,150,-150,150v-41,0,-75,-13,-100,-38v-41,-41,-75,-62,-100,-62v-47,0,-55,48,-50,100r-100,0r0,-50v-2,-80,70,-150,150,-150v42,0,75,12,100,37v42,42,75,63,100,63"},"\u00c4":{"d":"350,-900v27,0,50,23,50,50v0,27,-23,50,-50,50v-27,0,-50,-23,-50,-50v0,-27,23,-50,50,-50xm150,-900v27,0,50,23,50,50v0,27,-23,50,-50,50v-27,0,-50,-23,-50,-50v0,-27,23,-50,50,-50xm100,-200r0,200r-100,0r0,-325r188,-375r125,0r187,375r0,325r-100,0r0,-200r-300,0xm250,-600r-150,300r300,0"},"\u00c5":{"d":"250,-900v80,0,150,70,150,150v0,47,-18,86,-55,116r155,309r0,325r-100,0r0,-200r-300,0r0,200r-100,0r0,-325r155,-309v-37,-30,-55,-69,-55,-116v0,-80,70,-150,150,-150xm250,-800v-27,0,-50,23,-50,50v0,27,23,50,50,50v27,0,50,-23,50,-50v0,-27,-23,-50,-50,-50xm250,-600r-150,300r300,0"},"\u00c7":{"d":"300,-100v53,2,102,-47,100,-100r100,0v0,114,-95,210,-219,200r38,36r-163,163r-69,-69r132,-130v-125,10,-218,-87,-219,-200r0,-300v-3,-106,94,-200,200,-200v107,0,182,-4,241,59v38,40,59,86,59,141r-100,0v2,-53,-47,-100,-100,-100r-100,0v-53,-2,-100,47,-100,100r0,300v-2,53,47,100,100,100r100,0xm281,0r-62,0r62,0"},"\u00c9":{"d":"294,-700r206,0r0,100r-400,0r0,200r300,0r0,100r-300,0r0,200r400,0r0,100r-500,0r0,-700r219,0r-31,-31r162,-163r69,69"},"\u00d1":{"d":"350,-810v47,0,55,-48,50,-100r100,0r0,50v2,80,-70,150,-150,150v-41,0,-75,-13,-100,-38v-41,-41,-75,-62,-100,-62v-47,0,-55,48,-50,100r-100,0r0,-50v-2,-80,70,-150,150,-150v42,0,75,12,100,37v42,42,75,63,100,63xm500,-10r-100,0r0,-231r-300,-300r0,531r-100,0r0,-695r69,0r331,326r0,-326r100,0r0,695"},"\u00d6":{"d":"350,-900v27,0,50,23,50,50v0,27,-23,50,-50,50v-27,0,-50,-23,-50,-50v0,-27,23,-50,50,-50xm150,-900v27,0,50,23,50,50v0,27,-23,50,-50,50v-27,0,-50,-23,-50,-50v0,-27,23,-50,50,-50xm300,-700v106,-3,200,94,200,200r0,300v3,106,-94,203,-200,200r-100,0v-106,3,-200,-94,-200,-200r0,-300v-3,-106,94,-203,200,-200r100,0xm300,-100v53,2,100,-47,100,-100r0,-300v2,-53,-47,-100,-100,-100r-100,0v-53,-2,-100,47,-100,100r0,300v-2,53,47,100,100,100r100,0"},"\u00dc":{"d":"350,-900v27,0,50,23,50,50v0,27,-23,50,-50,50v-27,0,-50,-23,-50,-50v0,-27,23,-50,50,-50xm150,-900v27,0,50,23,50,50v0,27,-23,50,-50,50v-27,0,-50,-23,-50,-50v0,-27,23,-50,50,-50xm300,-100v53,2,100,-47,100,-100r0,-500r100,0r0,500v3,107,-93,203,-200,200r-100,0v-107,3,-200,-93,-200,-200r0,-500r100,0r0,500v-2,53,47,100,100,100r100,0"},"\u00e1":{"d":"419,-750r-163,162r-69,-68r163,-163xm0,-300v-3,-108,92,-200,200,-200r300,0r0,500r-100,0r0,-138v-47,49,-134,138,-200,138v-108,0,-203,-92,-200,-200r0,-100xm100,-200v-2,53,47,102,100,100v84,-4,145,-103,200,-150r0,-150r-200,0v-53,-2,-100,47,-100,100r0,100"},"\u00e0":{"d":"412,-656r-68,68r-163,-162r69,-69xm0,-300v-3,-108,92,-200,200,-200r300,0r0,500r-100,0r0,-138v-47,49,-134,138,-200,138v-108,0,-203,-92,-200,-200r0,-100xm100,-200v-2,53,47,102,100,100v84,-4,145,-103,200,-150r0,-150r-200,0v-53,-2,-100,47,-100,100r0,100"},"\u00e2":{"d":"412,-656r-68,68r-94,-93r-94,93r-69,-68r163,-163xm0,-300v-3,-108,92,-200,200,-200r300,0r0,500r-100,0r0,-138v-47,49,-134,138,-200,138v-108,0,-203,-92,-200,-200r0,-100xm100,-200v-2,53,47,102,100,100v84,-4,145,-103,200,-150r0,-150r-200,0v-53,-2,-100,47,-100,100r0,100"},"\u00e4":{"d":"350,-700v27,0,50,23,50,50v0,27,-23,50,-50,50v-27,0,-50,-23,-50,-50v0,-27,23,-50,50,-50xm150,-700v27,0,50,23,50,50v0,27,-23,50,-50,50v-27,0,-50,-23,-50,-50v0,-27,23,-50,50,-50xm0,-300v-3,-108,92,-200,200,-200r300,0r0,500r-100,0r0,-138v-47,49,-134,138,-200,138v-108,0,-203,-92,-200,-200r0,-100xm100,-200v-2,53,47,102,100,100v84,-4,145,-103,200,-150r0,-150r-200,0v-53,-2,-100,47,-100,100r0,100"},"\u00e3":{"d":"350,-700v47,0,55,-48,50,-100r100,0r0,50v2,80,-70,150,-150,150v-41,0,-75,-13,-100,-38v-41,-41,-75,-62,-100,-62v-47,0,-55,48,-50,100r-100,0r0,-50v-2,-80,70,-150,150,-150v42,0,75,12,100,37v42,42,75,63,100,63xm0,-300v-3,-108,92,-200,200,-200r300,0r0,500r-100,0r0,-138v-47,49,-134,138,-200,138v-108,0,-203,-92,-200,-200r0,-100xm100,-200v-2,53,47,102,100,100v84,-4,145,-103,200,-150r0,-150r-200,0v-53,-2,-100,47,-100,100r0,100"},"\u00e5":{"d":"0,-300v-3,-108,92,-203,200,-200r50,0v-80,2,-150,-70,-150,-150v0,-80,70,-150,150,-150v80,0,150,70,150,150v0,80,-70,152,-150,150r250,0r0,500r-100,0r0,-138v-47,49,-134,138,-200,138v-108,0,-203,-92,-200,-200r0,-100xm250,-700v-27,0,-50,23,-50,50v0,27,23,50,50,50v27,0,50,-23,50,-50v0,-27,-23,-50,-50,-50xm100,-200v-2,53,47,102,100,100v84,-4,145,-103,200,-150r0,-150r-200,0v-53,-2,-100,47,-100,100r0,100"},"\u00e7":{"d":"100,-200v-2,53,47,100,100,100r300,0r0,100r-219,0r38,36r-163,163r-69,-69r132,-130v-125,10,-218,-87,-219,-200r0,-100v-3,-106,94,-200,200,-200v107,0,182,-4,241,59v38,40,59,86,59,141r-100,0v2,-53,-47,-100,-100,-100r-100,0v-53,-2,-100,47,-100,100r0,100xm281,0r-62,0r62,0"},"\u00e9":{"d":"419,-750r-163,162r-69,-68r163,-163xm100,-200v-2,53,47,100,100,100r300,0r0,100r-300,0v-106,3,-203,-94,-200,-200r0,-100v-3,-106,94,-203,200,-200r100,0v106,-3,203,94,200,200r0,100r-400,0xm400,-300v2,-53,-47,-102,-100,-100v-69,3,-134,-11,-170,30v-18,21,-30,43,-30,70r300,0"},"\u00e8":{"d":"312,-656r-68,68r-163,-162r69,-69xm100,-200v-2,53,47,100,100,100r300,0r0,100r-300,0v-106,3,-203,-94,-200,-200r0,-100v-3,-106,94,-203,200,-200r100,0v106,-3,203,94,200,200r0,100r-400,0xm400,-300v2,-53,-47,-102,-100,-100v-69,3,-134,-11,-170,30v-18,21,-30,43,-30,70r300,0"},"\u00ea":{"d":"412,-656r-68,68r-94,-93r-94,93r-69,-68r163,-163xm100,-200v-2,53,47,100,100,100r300,0r0,100r-300,0v-106,3,-203,-94,-200,-200r0,-100v-3,-106,94,-203,200,-200r100,0v106,-3,203,94,200,200r0,100r-400,0xm400,-300v2,-53,-47,-102,-100,-100v-69,3,-134,-11,-170,30v-18,21,-30,43,-30,70r300,0"},"\u00eb":{"d":"350,-700v27,0,50,23,50,50v0,27,-23,50,-50,50v-27,0,-50,-23,-50,-50v0,-27,23,-50,50,-50xm150,-700v27,0,50,23,50,50v0,27,-23,50,-50,50v-27,0,-50,-23,-50,-50v0,-27,23,-50,50,-50xm100,-200v-2,53,47,100,100,100r300,0r0,100r-300,0v-106,3,-203,-94,-200,-200r0,-100v-3,-106,94,-203,200,-200r100,0v106,-3,203,94,200,200r0,100r-400,0xm400,-300v2,-53,-47,-102,-100,-100v-69,3,-134,-11,-170,30v-18,21,-30,43,-30,70r300,0"},"\u00ed":{"d":"419,-750r-163,162r-69,-68r163,-163xm400,0r-300,0r0,-100r100,0r0,-300r-100,0r0,-100r200,0r0,400r100,0r0,100"},"\u00ec":{"d":"312,-656r-68,68r-163,-162r69,-69xm400,0r-300,0r0,-100r100,0r0,-300r-100,0r0,-100r200,0r0,400r100,0r0,100"},"\u00ee":{"d":"412,-656r-68,68r-94,-93r-94,93r-69,-68r163,-163xm400,0r-300,0r0,-100r100,0r0,-300r-100,0r0,-100r200,0r0,400r100,0r0,100"},"\u00ef":{"d":"350,-700v27,0,50,23,50,50v0,27,-23,50,-50,50v-27,0,-50,-23,-50,-50v0,-27,23,-50,50,-50xm150,-700v27,0,50,23,50,50v0,27,-23,50,-50,50v-27,0,-50,-23,-50,-50v0,-27,23,-50,50,-50xm400,0r-300,0r0,-100r100,0r0,-300r-100,0r0,-100r200,0r0,400r100,0r0,100"},"\u00f1":{"d":"350,-700v47,0,55,-48,50,-100r100,0r0,50v2,80,-70,150,-150,150v-41,0,-75,-13,-100,-38v-41,-41,-75,-62,-100,-62v-47,0,-55,48,-50,100r-100,0r0,-50v-2,-80,70,-150,150,-150v42,0,75,12,100,37v42,42,75,63,100,63xm400,-300v2,-53,-47,-102,-100,-100v-84,4,-145,103,-200,150r0,250r-100,0r0,-500r100,0r0,137v48,-48,135,-137,200,-137v108,0,200,92,200,200r0,300r-100,0r0,-300"},"\u00f3":{"d":"419,-750r-163,162r-69,-68r163,-163xm300,-500v106,-3,203,94,200,200r0,100v3,106,-94,203,-200,200r-100,0v-106,3,-203,-94,-200,-200r0,-100v-3,-106,94,-203,200,-200r100,0xm300,-100v53,2,100,-47,100,-100r0,-100v2,-53,-47,-100,-100,-100r-100,0v-53,-2,-100,47,-100,100r0,100v-2,53,47,100,100,100r100,0"},"\u00f2":{"d":"312,-656r-68,68r-163,-162r69,-69xm300,-500v106,-3,203,94,200,200r0,100v3,106,-94,203,-200,200r-100,0v-106,3,-203,-94,-200,-200r0,-100v-3,-106,94,-203,200,-200r100,0xm300,-100v53,2,100,-47,100,-100r0,-100v2,-53,-47,-100,-100,-100r-100,0v-53,-2,-100,47,-100,100r0,100v-2,53,47,100,100,100r100,0"},"\u00f4":{"d":"412,-656r-68,68r-94,-93r-94,93r-69,-68r163,-163xm300,-500v106,-3,203,94,200,200r0,100v3,106,-94,203,-200,200r-100,0v-106,3,-203,-94,-200,-200r0,-100v-3,-106,94,-203,200,-200r100,0xm300,-100v53,2,100,-47,100,-100r0,-100v2,-53,-47,-100,-100,-100r-100,0v-53,-2,-100,47,-100,100r0,100v-2,53,47,100,100,100r100,0"},"\u00f6":{"d":"350,-700v27,0,50,23,50,50v0,27,-23,50,-50,50v-27,0,-50,-23,-50,-50v0,-27,23,-50,50,-50xm150,-700v27,0,50,23,50,50v0,27,-23,50,-50,50v-27,0,-50,-23,-50,-50v0,-27,23,-50,50,-50xm300,-500v106,-3,203,94,200,200r0,100v3,106,-94,203,-200,200r-100,0v-106,3,-203,-94,-200,-200r0,-100v-3,-106,94,-203,200,-200r100,0xm300,-100v53,2,100,-47,100,-100r0,-100v2,-53,-47,-100,-100,-100r-100,0v-53,-2,-100,47,-100,100r0,100v-2,53,47,100,100,100r100,0"},"\u00f5":{"d":"350,-700v47,0,55,-48,50,-100r100,0r0,50v2,80,-70,150,-150,150v-41,0,-75,-13,-100,-38v-41,-41,-75,-62,-100,-62v-47,0,-55,48,-50,100r-100,0r0,-50v-2,-80,70,-150,150,-150v42,0,75,12,100,37v42,42,75,63,100,63xm300,-500v106,-3,203,94,200,200r0,100v3,106,-94,203,-200,200r-100,0v-106,3,-203,-94,-200,-200r0,-100v-3,-106,94,-203,200,-200r100,0xm300,-100v53,2,100,-47,100,-100r0,-100v2,-53,-47,-100,-100,-100r-100,0v-53,-2,-100,47,-100,100r0,100v-2,53,47,100,100,100r100,0"},"\u00fa":{"d":"419,-750r-163,162r-69,-68r163,-163xm100,-200v-2,53,47,102,100,100v84,-4,145,-103,200,-150r0,-250r100,0r0,500r-100,0r0,-138v-47,49,-134,138,-200,138v-108,0,-200,-92,-200,-200r0,-300r100,0r0,300"},"\u00f9":{"d":"312,-656r-68,68r-163,-162r69,-69xm100,-200v-2,53,47,102,100,100v84,-4,145,-103,200,-150r0,-250r100,0r0,500r-100,0r0,-138v-47,49,-134,138,-200,138v-108,0,-200,-92,-200,-200r0,-300r100,0r0,300"},"\u00fb":{"d":"412,-650r-68,69r-94,-94r-94,94r-69,-69r163,-163xm100,-200v-2,53,47,102,100,100v84,-4,145,-103,200,-150r0,-250r100,0r0,500r-100,0r0,-138v-47,49,-134,138,-200,138v-108,0,-200,-92,-200,-200r0,-300r100,0r0,300"},"\u00fc":{"d":"350,-700v27,0,50,23,50,50v0,27,-23,50,-50,50v-27,0,-50,-23,-50,-50v0,-27,23,-50,50,-50xm150,-700v27,0,50,23,50,50v0,27,-23,50,-50,50v-27,0,-50,-23,-50,-50v0,-27,23,-50,50,-50xm100,-200v-2,53,47,102,100,100v84,-4,145,-103,200,-150r0,-250r100,0r0,500r-100,0r0,-138v-47,49,-134,138,-200,138v-108,0,-200,-92,-200,-200r0,-300r100,0r0,300"},"\u00b0":{"d":"300,-800v106,0,200,94,200,200v0,107,-93,200,-200,200v-106,0,-200,-94,-200,-200v0,-107,93,-200,200,-200xm300,-500v53,0,100,-47,100,-100v0,-53,-47,-100,-100,-100v-53,0,-100,47,-100,100v0,53,47,100,100,100"},"\u00a2":{"d":"0,-300v-3,-106,94,-203,200,-200r0,-100r100,0r0,100v106,-3,203,94,200,200r-100,0v2,-53,-47,-102,-100,-100r0,300r200,0r0,100r-200,0r0,99r-100,0r0,-99v-106,3,-203,-94,-200,-200r0,-100xm200,-400v-53,-2,-102,47,-100,100v3,69,-11,134,30,170v21,18,43,30,70,30r0,-300"},"\u00a3":{"d":"300,-100v46,2,103,-55,100,-100r100,0v4,100,-100,200,-200,200r-300,0r0,-600v-3,-106,94,-200,200,-200v106,0,203,94,200,200r-100,0v2,-53,-47,-100,-100,-100v-53,0,-100,47,-100,100r0,100r200,0r0,100r-200,0r0,300r200,0"},"\u00a7":{"d":"188,-800v-36,-2,-63,41,-44,74r356,357r0,169r-100,0r0,-131r-350,-349v-77,-89,63,-220,150,-220r100,0v108,-3,200,92,200,200r0,100r-100,0r0,-100v2,-53,-47,-100,-100,-100r-112,0xm313,0v35,1,63,-40,44,-74r-357,-357r0,-169r100,0r0,131r350,349v77,89,-63,219,-150,219r-100,0v-106,3,-203,-93,-200,-199r0,-100r100,0r0,100v-2,53,47,100,100,100r113,0"},"\u00b6":{"d":"0,-550v0,-135,115,-250,250,-250r250,0r0,800r-100,0r0,-300r-100,0r0,300r-100,0r0,-305v-107,-18,-200,-122,-200,-245xm400,-400r0,-300r-100,0r0,300r100,0xm200,-691v-82,22,-134,146,-72,228v19,25,43,44,72,54r0,-282"},"\u00df":{"d":"300,-800v108,-3,200,92,200,200v0,67,-26,121,-80,160v-25,18,-26,59,-2,78v55,42,82,97,82,162v0,107,-93,203,-200,200r-100,0r0,-100r100,0v53,2,100,-47,100,-100v0,-39,-17,-68,-50,-88v-48,-27,-50,-69,-50,-137v0,-87,100,-88,100,-175v0,-66,-72,-122,-139,-92r-133,132v-19,19,-28,42,-28,69r0,590r-100,0r0,-605v0,-42,14,-77,41,-104r190,-190r69,0"},"\u00ae":{"d":"0,-666v239,-116,508,76,500,316r0,75v3,95,-80,175,-175,175r-95,0r-99,-100r-31,0r0,100r-100,0r0,-400r150,0v80,-2,150,70,150,150v0,49,-20,89,-60,119v16,10,18,32,47,31v74,-3,113,-61,113,-150v0,-135,-115,-250,-250,-250v-55,0,-105,17,-150,50r0,-116xm100,-300v52,4,100,-2,100,-50v0,-47,-48,-55,-100,-50r0,100"},"\u00a9":{"d":"0,-666v239,-116,500,76,500,316v0,240,-260,433,-500,316r0,-116v44,33,94,50,150,50v135,0,250,-115,250,-250v0,-135,-115,-250,-250,-250v-55,0,-105,17,-150,50r0,-116xm100,-350v0,27,23,51,50,50r150,0r0,100r-150,0v-80,2,-150,-70,-150,-150v0,-80,70,-150,150,-150r150,0r0,100r-150,0v-27,-1,-50,23,-50,50"},"\u00b4":{"d":"424,-750r-69,-69r-163,163r69,68"},"\u00a8":{"d":"350,-700v27,0,50,23,50,50v0,27,-23,50,-50,50v-27,0,-50,-23,-50,-50v0,-27,23,-50,50,-50xm150,-700v27,0,50,23,50,50v0,27,-23,50,-50,50v-27,0,-50,-23,-50,-50v0,-27,23,-50,50,-50"},"\u00c6":{"d":"0,-500v-3,-107,93,-200,200,-200r300,0r0,100r-200,0r0,200r100,0r0,100r-100,0r0,200r200,0r0,100r-300,0r0,-300r-100,0r0,300r-100,0r0,-500xm200,-600v-53,-2,-100,47,-100,100r0,100r100,0r0,-200"},"\u00d8":{"d":"300,-700v106,-3,200,94,200,200r0,300v3,106,-94,203,-200,200r-100,0v-106,3,-200,-94,-200,-200r0,-300v-3,-106,94,-203,200,-200r100,0xm200,-600v-53,-2,-100,47,-100,100r0,231r285,-285v-31,-58,-104,-45,-185,-46xm300,-100v53,2,100,-47,100,-100r0,-229r-283,283v32,59,103,45,183,46"},"\u00b1":{"d":"500,0r-500,0r0,-100r200,0r0,-200r-200,0r0,-100r200,0r0,-200r100,0r0,200r200,0r0,100r-200,0r0,200r200,0r0,100"},"\u00a5":{"d":"537,-650r-150,150r132,0r0,100r-200,0r0,100r200,0r0,100r-200,0r0,200r-100,0r0,-200r-200,0r0,-100r200,0r0,-100r-200,0r0,-100r131,0r-150,-150r69,-69r200,200r200,-200"},"\u00b5":{"d":"400,-200v-2,53,47,102,100,100r0,100v-60,0,-110,-23,-150,-68v-56,71,-136,71,-250,68r0,199r-100,0r0,-699r100,0r0,400r100,0v53,2,100,-47,100,-100r0,-300r100,0r0,300"},"\u03bc":{"d":"400,-200v-2,53,47,102,100,100r0,100v-60,0,-110,-23,-150,-68v-56,71,-136,71,-250,68r0,199r-100,0r0,-699r100,0r0,400r100,0v53,2,100,-47,100,-100r0,-300r100,0r0,300"},"\u00aa":{"d":"100,-700v0,-106,94,-200,200,-200r200,0r0,400r-200,0v-106,3,-200,-94,-200,-200xm500,-300r-400,0r0,-100r400,0r0,100xm200,-700v0,53,47,100,100,100r100,0r0,-200r-100,0v-53,-2,-100,47,-100,100"},"\u00ba":{"d":"300,-900v106,0,200,94,200,200v0,107,-93,200,-200,200v-107,0,-200,-93,-200,-200v0,-107,93,-200,200,-200xm500,-300r-400,0r0,-100r400,0r0,100xm300,-600v53,0,100,-47,100,-100v0,-53,-47,-100,-100,-100v-53,0,-100,47,-100,100v0,53,47,100,100,100"},"\u00e6":{"d":"300,-500v106,-3,203,94,200,200r0,100r-200,0r0,100r200,0r0,100r-300,0v-106,3,-203,-94,-200,-200r0,-100v-3,-106,94,-203,200,-200r100,0xm400,-300v2,-53,-47,-102,-100,-100r0,100r100,0xm200,-400v-53,-2,-102,47,-100,100v3,69,-11,134,30,170v21,18,43,30,70,30r0,-300"},"\u00f8":{"d":"300,-500v106,-3,203,94,200,200r0,100v3,106,-94,203,-200,200r-100,0v-106,3,-203,-94,-200,-200r0,-100v-3,-106,94,-203,200,-200r100,0xm200,-400v-53,-2,-102,47,-100,100v2,44,-5,87,5,124r221,-220v-38,-9,-82,-2,-126,-4xm300,-100v53,2,102,-47,100,-100v-1,-42,3,-89,-3,-126r-222,222v38,9,82,2,125,4"},"\u00bf":{"d":"250,-700v27,0,50,23,50,50v0,27,-23,50,-50,50v-27,0,-50,-23,-50,-50v0,-27,23,-50,50,-50xm300,-100v53,2,102,-47,100,-100r100,0v3,106,-94,203,-200,200r-100,0v-139,4,-250,-155,-178,-292r209,-208r69,0r0,69r-193,194v-27,67,28,137,93,137r100,0"},"\u00a1":{"d":"350,-700v27,0,50,23,50,50v0,27,-23,50,-50,50v-27,0,-50,-23,-50,-50v0,-27,23,-50,50,-50xm400,0r-100,0r0,-500r100,0r0,500"},"\u00ac":{"d":"500,-100r-100,0r0,-200r-400,0r0,-100r500,0r0,300"},"\u00ab":{"d":"490,-9r-92,38r-98,-229r98,-230r92,39r-84,191xm190,-9r-92,38r-98,-229r98,-230r92,39r-84,191"},"\u00bb":{"d":"500,-200r-98,229r-92,-38r84,-191r-84,-191r92,-39xm200,-200r-98,229r-92,-38r84,-191r-84,-191r92,-39"},"\u00a0":{},"\u00c0":{"d":"213,-700r-132,-131r69,-69r162,162r-37,38r38,0r187,375r0,325r-100,0r0,-200r-300,0r0,200r-100,0r0,-325r188,-375r25,0xm250,-600r-150,300r300,0"},"\u00c3":{"d":"350,-800v47,0,55,-48,50,-100r100,0r0,50v2,80,-70,150,-150,150v-41,0,-75,-13,-100,-38v-41,-41,-75,-62,-100,-62v-47,0,-55,48,-50,100r-100,0r0,-50v-2,-80,70,-150,150,-150v42,0,75,12,100,37v42,42,75,63,100,63xm100,-200r0,200r-100,0r0,-325r188,-375r125,0r187,375r0,325r-100,0r0,-200r-300,0xm250,-600r-150,300r300,0"},"\u00d5":{"d":"350,-800v47,0,55,-48,50,-100r100,0r0,50v2,80,-70,150,-150,150v-41,0,-75,-13,-100,-38v-41,-41,-75,-62,-100,-62v-47,0,-55,48,-50,100r-100,0r0,-50v-2,-80,70,-150,150,-150v42,0,75,12,100,37v42,42,75,63,100,63xm300,-700v106,-3,200,94,200,200r0,300v3,106,-94,203,-200,200r-100,0v-106,3,-200,-94,-200,-200r0,-300v-3,-106,94,-203,200,-200r100,0xm300,-100v53,2,100,-47,100,-100r0,-300v2,-53,-47,-100,-100,-100r-100,0v-53,-2,-100,47,-100,100r0,300v-2,53,47,100,100,100r100,0"},"\u00f7":{"d":"250,-600v27,0,50,23,50,50v0,27,-23,50,-50,50v-27,0,-50,-23,-50,-50v0,-27,23,-50,50,-50xm500,-300r-500,0r0,-100r500,0r0,100xm250,-200v27,0,50,23,50,50v0,27,-23,50,-50,50v-27,0,-50,-23,-50,-50v0,-27,23,-50,50,-50"},"\u00ff":{"d":"350,-700v27,0,50,23,50,50v0,27,-23,50,-50,50v-27,0,-50,-23,-50,-50v0,-27,23,-50,50,-50xm150,-700v27,0,50,23,50,50v0,27,-23,50,-50,50v-27,0,-50,-23,-50,-50v0,-27,23,-50,50,-50xm100,-200v-2,53,47,100,100,100r200,0r0,-400r100,0r0,500v3,106,-94,199,-200,199r-200,0r0,-100r200,0v53,2,102,-47,100,-99r-200,0v-106,3,-200,-94,-200,-200r0,-300r100,0r0,300"},"\u00b7":{"d":"300,-425v53,0,100,47,100,100v0,53,-47,100,-100,100v-53,0,-100,-47,-100,-100v0,-53,47,-100,100,-100"},"\u2219":{"d":"300,-425v53,0,100,47,100,100v0,53,-47,100,-100,100v-53,0,-100,-47,-100,-100v0,-53,47,-100,100,-100"},"\u00c2":{"d":"250,-763r-94,94r-69,-69r163,-162r163,162r-69,69xm100,-200r0,200r-100,0r0,-325r188,-375r125,0r187,375r0,325r-100,0r0,-200r-300,0xm250,-600r-150,300r300,0"},"\u00ca":{"d":"500,0r-500,0r0,-700r125,0r-38,-37r163,-163r162,163r-37,37r125,0r0,100r-400,0r0,200r300,0r0,100r-300,0r0,200r400,0r0,100xm313,-700r-63,-62r-63,62r126,0"},"\u00c1":{"d":"288,-700r25,0r187,375r0,325r-100,0r0,-200r-300,0r0,200r-100,0r0,-325r188,-375r37,0r-37,-38r162,-162r69,69xm250,-600r-150,300r300,0"},"\u00cb":{"d":"350,-900v27,0,50,23,50,50v0,27,-23,50,-50,50v-27,0,-50,-23,-50,-50v0,-27,23,-50,50,-50xm150,-900v27,0,50,23,50,50v0,27,-23,50,-50,50v-27,0,-50,-23,-50,-50v0,-27,23,-50,50,-50xm500,0r-500,0r0,-700r500,0r0,100r-400,0r0,200r300,0r0,100r-300,0r0,200r400,0r0,100"},"\u00c8":{"d":"275,-700r225,0r0,100r-400,0r0,200r300,0r0,100r-300,0r0,200r400,0r0,100r-500,0r0,-700r213,0r-132,-131r69,-69r163,162"},"\u00cd":{"d":"288,-700r212,0r0,100r-200,0r0,500r200,0r0,100r-500,0r0,-100r200,0r0,-500r-200,0r0,-100r225,0r-37,-38r162,-162r69,69"},"\u00ce":{"d":"500,0r-500,0r0,-100r200,0r0,-500r-200,0r0,-100r124,0v-6,-7,-18,-19,-37,-37r163,-163r162,163r-37,37r125,0r0,100r-200,0r0,500r200,0r0,100xm312,-700r-62,-62r-63,62r125,0"},"\u00cf":{"d":"350,-900v27,0,50,23,50,50v0,27,-23,50,-50,50v-27,0,-50,-23,-50,-50v0,-27,23,-50,50,-50xm150,-900v27,0,50,23,50,50v0,27,-23,50,-50,50v-27,0,-50,-23,-50,-50v0,-27,23,-50,50,-50xm500,0r-500,0r0,-100r200,0r0,-500r-200,0r0,-100r500,0r0,100r-200,0r0,500r200,0r0,100"},"\u00cc":{"d":"213,-700r-132,-131r69,-69r163,162r-38,38r225,0r0,100r-200,0r0,500r200,0r0,100r-500,0r0,-100r200,0r0,-500r-200,0r0,-100r213,0"},"\u00d3":{"d":"0,-500v1,-116,96,-212,225,-200r-37,-38r162,-162r69,69r-131,131v119,-7,212,89,212,200r0,300v3,108,-92,203,-200,200r-100,0v-108,3,-200,-92,-200,-200r0,-300xm400,-500v2,-53,-47,-100,-100,-100r-100,0v-53,-2,-100,47,-100,100r0,300v-2,53,47,100,100,100r100,0v53,2,100,-47,100,-100r0,-300"},"\u00d4":{"d":"364,-689v73,23,136,97,136,189r0,300v3,106,-94,203,-200,200r-100,0v-106,3,-200,-94,-200,-200r0,-300v0,-91,64,-166,135,-189r-48,-48r163,-163r162,163xm313,-700r-63,-62r-63,62r126,0xm300,-100v53,2,100,-47,100,-100r0,-300v2,-53,-47,-100,-100,-100r-100,0v-53,-2,-100,47,-100,100r0,300v-2,53,47,100,100,100r100,0"},"\u00d2":{"d":"0,-500v-1,-112,94,-208,213,-200r-132,-131r69,-69r163,162r-38,38v130,-11,225,84,225,200r0,300v3,108,-92,203,-200,200r-100,0v-108,3,-200,-92,-200,-200r0,-300xm400,-500v2,-53,-47,-100,-100,-100r-100,0v-53,-2,-100,47,-100,100r0,300v-2,53,47,100,100,100r100,0v53,2,100,-47,100,-100r0,-300"},"\u00da":{"d":"419,-831r-163,162r-69,-68r163,-163xm300,-100v53,2,100,-47,100,-100r0,-500r100,0r0,500v3,107,-93,203,-200,200r-100,0v-107,3,-200,-93,-200,-200r0,-500r100,0r0,500v-2,53,47,100,100,100r100,0"},"\u00db":{"d":"412,-737r-68,68r-94,-93r-94,93r-69,-68r163,-163xm300,-100v53,2,100,-47,100,-100r0,-500r100,0r0,500v3,107,-93,203,-200,200r-100,0v-107,3,-200,-93,-200,-200r0,-500r100,0r0,500v-2,53,47,100,100,100r100,0"},"\u00d9":{"d":"312,-737r-68,68r-163,-162r69,-69xm300,-100v53,2,100,-47,100,-100r0,-500r100,0r0,500v3,107,-93,203,-200,200r-100,0v-107,3,-200,-93,-200,-200r0,-500r100,0r0,500v-2,53,47,100,100,100r100,0"},"\u00af":{"d":"400,-600r-300,0r0,-100r300,0r0,100"},"\u02c9":{"d":"400,-600r-300,0r0,-100r300,0r0,100"},"\u00b8":{"d":"300,55r0,-155r-200,0r0,100r100,0r0,18r-113,112r69,69"},"\u00a4":{"d":"500,-71r-71,71r-114,-115v-39,20,-91,20,-130,0r-114,115r-71,-71r115,-114v-20,-39,-20,-91,0,-130r-115,-114r71,-71r114,115v39,-20,91,-20,130,0r114,-115r71,71r-115,114v20,39,20,91,0,130xm250,-200v27,0,50,-23,50,-50v0,-27,-23,-50,-50,-50v-27,0,-50,23,-50,50v0,27,23,50,50,50"},"\u00a6":{"d":"300,-400r-100,0r0,-400r100,0r0,400xm300,99r-100,0r0,-399r100,0r0,399"},"\u00d0":{"d":"300,-700v106,-3,200,94,200,200r0,300v3,106,-94,200,-200,200r-200,0r0,-300r-100,0r0,-100r100,0r0,-300r200,0xm300,-100v53,2,100,-47,100,-100r0,-300v2,-53,-47,-100,-100,-100r-100,0r0,200r100,0r0,100r-100,0r0,200r100,0"},"\u00f0":{"d":"0,-300v-3,-106,94,-203,200,-200v45,1,91,-3,132,3r-132,-132r-62,62r-71,-71r62,-62r-62,-62r71,-71r62,62r62,-62r71,71r-62,62r172,173v80,67,53,195,57,327v3,108,-92,203,-200,200r-100,0v-106,3,-203,-94,-200,-200r0,-100xm300,-100v53,2,100,-47,100,-100r0,-100v2,-53,-47,-100,-100,-100r-100,0v-53,-2,-100,47,-100,100r0,100v-2,53,47,100,100,100r100,0"},"\u00dd":{"d":"419,-831r-163,162r-69,-68r163,-163xm500,-431r-200,200r0,231r-100,0r0,-231r-200,-200r0,-269r100,0r0,231r150,150r150,-150r0,-231r100,0r0,269"},"\u00fd":{"d":"419,-750r-163,162r-69,-68r163,-163xm100,-200v-2,53,47,100,100,100r200,0r0,-400r100,0r0,500v3,106,-94,199,-200,199r-200,0r0,-100r200,0v53,2,102,-47,100,-99r-200,0v-106,3,-200,-94,-200,-200r0,-300r100,0r0,300"},"\u00de":{"d":"300,-600v108,-3,200,92,200,200v0,106,-94,200,-200,200r-200,0r0,200r-100,0r0,-700r100,0r0,100r200,0xm300,-300v53,2,100,-47,100,-100v0,-53,-47,-100,-100,-100r-200,0r0,200r200,0"},"\u00fe":{"d":"300,-500v106,-3,203,94,200,200r0,100v3,106,-94,200,-200,200r-200,0r0,199r-100,0r0,-899r100,0r0,200r200,0xm300,-100v53,2,100,-47,100,-100r0,-100v2,-53,-47,-100,-100,-100r-200,0r0,300r200,0"},"\u00ad":{"d":"500,-300r-500,0r0,-100r500,0r0,100"},"\u2212":{"d":"500,-300r-500,0r0,-100r500,0r0,100"},"\u00d7":{"d":"497,-173r-70,70r-177,-177r-177,177r-70,-70r177,-177r-177,-177r70,-70r177,177r177,-177r70,70r-177,177"},"\u00b9":{"d":"175,-850v43,5,74,-13,75,-50r50,0r0,300r100,0r0,50r-250,0r0,-50r100,0r0,-200r-75,0r0,-50"},"\u00b2":{"d":"250,-900v105,0,178,55,139,146r-155,154r166,0r0,50r-250,0r0,-34r196,-197v15,-34,-12,-69,-46,-69v-53,0,-100,2,-100,50r-50,0v-2,-53,47,-100,100,-100"},"\u00b3":{"d":"358,-725v82,49,31,175,-58,175v-85,0,-148,-26,-150,-100r50,0v0,47,47,50,100,50v27,0,51,-23,50,-50v0,-47,-48,-55,-100,-50r0,-50v52,4,100,-2,100,-50v0,-47,-47,-50,-100,-50v-27,0,-51,23,-50,50r-50,0v-2,-53,47,-100,100,-100v87,0,148,28,150,100v0,30,-14,55,-42,75"},"\u00bd":{"d":"75,-850v43,5,74,-13,75,-50r50,0r0,300r100,0r0,50r-250,0r0,-50r100,0r0,-200r-75,0r0,-50xm600,-653r-565,565r-35,-35r565,-565xm400,-350v105,0,178,55,139,146r-155,154r166,0r0,50r-250,0r0,-34r196,-197v15,-34,-12,-69,-46,-69v-53,0,-100,2,-100,50r-50,0v-2,-53,47,-100,100,-100"},"\u00bc":{"d":"75,-850v43,5,74,-13,75,-50r50,0r0,300r100,0r0,50r-250,0r0,-50r100,0r0,-200r-75,0r0,-50xm600,-653r-565,565r-35,-35r565,-565xm466,-350r34,0r0,200r50,0r0,50r-50,0r0,50r50,0r0,50r-150,0r0,-50r50,0r0,-50r-150,0r0,-84xm350,-166r0,16r100,0r0,-116"},"\u00be":{"d":"258,-725v82,49,31,175,-58,175v-85,0,-148,-26,-150,-100r50,0v0,47,47,50,100,50v27,0,51,-23,50,-50v0,-47,-48,-55,-100,-50r0,-50v52,4,100,-2,100,-50v0,-47,-47,-50,-100,-50v-27,0,-51,23,-50,50r-50,0v-2,-53,47,-100,100,-100v87,0,148,28,150,100v0,30,-14,55,-42,75xm600,-653r-565,565r-35,-35r565,-565xm466,-350r34,0r0,200r50,0r0,50r-50,0r0,50r50,0r0,50r-150,0r0,-50r50,0r0,-50r-150,0r0,-84xm350,-166r0,16r100,0r0,-116"}}});
